tree
version=v3
num_class=1
num_tree_per_iteration=1
label_index=0
max_feature_idx=7
objective=regression
feature_names=MedInc HouseAge AveRooms AveBedrms Population AveOccup Latitude Longitude
feature_infos=[0.49990000000000001:15.0001] [2:52] [0.85106382978723405:28.837606837606842] [0.5:4.4615384615384617] [3:35682] [0.94999999999999996:502.99061032863852] [32.549999999999997:41.950000000000003] [-124.34999999999999:-114.55]
tree_sizes=2613

Tree=0
num_leaves=30
num_cat=0
split_feature=0 0 0 5 2 5 0 6 7 0 6 7 0 6 7 1 0 0 5 5 1 5 7 0 7 6 7 7 6
split_gain=8977.45 2524.34 1672.87 978.594 371.686 368.172 323.303 271.555 319.857 169.979 164.077 164.118 145.014 135.559 188.385 121.758 115.663 113.87 93.0877 91.8523 88.8169 85.1618 63.0572 61.7202 60.2828 52.3985 64.0425 47.6884 47.7301
threshold=5.0595000000000008 2.8417500000000007 6.832250000000001 2.3835238165532098 4.0056097077307955 2.78833889202031 4.0974500000000011 37.985000000000007 -118.30499999999999 7.979000000000001 34.165000000000006 -122.31499999999998 2.3883000000000005 37.925000000000004 -117.78499999999998 26.500000000000004 1.8695000000000002 5.6717000000000004 2.772343485256219 2.8108344772087723 25.500000000000004 2.5510096439912342 -118.38499999999998 3.6589500000000004 -117.71499999999999 37.945000000000007 -118.05499999999999 -118.20499999999998 37.925000000000004
decision_type=2 2 2 2 2 2 2 2 2 2 2 2 2 2 2 2 2 2 2 2 2 2 2 2 2 2 2 2 2
left_child=1 4 5 7 16 15 13 8 10 20 22 -12 -6 14 19 -2 -1 -7 25 -5 -4 27 -3 -13 -10 26 -8 28 -18
right_child=2 3 9 6 12 17 18 -9 24 -11 11 23 -14 -15 -16 -17 21 -19 -20 -21 -22 -23 -24 -25 -26 -27 -28 -29 -30
leaf_value=1.9939518288806186 2.1757126023988707 2.2421398855775672 2.2345800491166692 2.0810755931001719 1.9601196516532566 2.1020074182531423 2.1381926277625798 2.0293422161699493 2.1065688301174701 2.3410267533608229 2.2030188473620593 2.0878660498852337 1.9972674373383319 2.0041564200611433 2.0074258833418672 2.23429217173737 2.095771385358753 2.1557514891536345 2.0684436720409165 2.0449346848940628 2.3122207024718695 2.0204175510690869 2.169395719188898 2.1454283737315212 2.0510294486360494 2.0570040884271665 2.0739052948289034 2.0297198501072957 1.9904959504155271
leaf_weight=811 835 279 363 1177 2452 733 542 266 544 600 302 386 1839 909 912 617 419 853 1505 1747 248 939 208 360 305 161 217 235 48
leaf_count=811 835 279 363 1177 2452 733 542 266 544 600 302 386 1839 909 912 617 419 853 1505 1747 248 939 208 360 305 161 217 235 48
internal_value=2.07453 2.0409 2.20384 2.07325 1.99379 2.16422 2.05406 2.12518 2.13587 2.30322 2.16311 2.14082 1.97604 2.03888 2.04711 2.2006 2.02485 2.13091 2.08376 2.05948 2.26609 2.04011 2.21107 2.11564 2.08662 2.10882 2.11981 2.06646 2.08495
internal_weight=0 16563 4249 9820 6743 3038 7170 2650 2384 1211 1535 1048 4291 4745 3836 1452 2452 1586 2425 2924 611 1641 487 746 849 920 759 702 467
internal_count=20812 16563 4249 9820 6743 3038 7170 2650 2384 1211 1535 1048 4291 4745 3836 1452 2452 1586 2425 2924 611 1641 487 746 849 920 759 702 467
is_linear=0
shrinkage=1


end of trees

feature_importances:
MedInc=9
Longitude=7
AveOccup=5
Latitude=5
HouseAge=2
AveRooms=1

parameters:
[boosting: gbdt]
[objective: regression]
[metric: l2,auc]
[tree_learner: serial]
[device_type: cpu]
[linear_tree: 0]
[data: ]
[valid: ]
[num_iterations: 30]
[learning_rate: 0.1]
[num_leaves: 30]
[num_threads: 0]
[deterministic: 0]
[force_col_wise: 0]
[force_row_wise: 0]
[histogram_pool_size: -1]
[max_depth: -1]
[min_data_in_leaf: 20]
[min_sum_hessian_in_leaf: 0.001]
[bagging_fraction: 0.8]
[pos_bagging_fraction: 1]
[neg_bagging_fraction: 1]
[bagging_freq: 10]
[bagging_seed: 3]
[feature_fraction: 0.9]
[feature_fraction_bynode: 1]
[feature_fraction_seed: 2]
[extra_trees: 0]
[extra_seed: 6]
[early_stopping_round: 5]
[first_metric_only: 0]
[max_delta_step: 0]
[lambda_l1: 0]
[lambda_l2: 0]
[linear_lambda: 0]
[min_gain_to_split: 0]
[drop_rate: 0.1]
[max_drop: 50]
[skip_drop: 0.5]
[xgboost_dart_mode: 0]
[uniform_drop: 0]
[drop_seed: 4]
[top_rate: 0.2]
[other_rate: 0.1]
[min_data_per_group: 100]
[max_cat_threshold: 32]
[cat_l2: 10]
[cat_smooth: 10]
[max_cat_to_onehot: 4]
[top_k: 20]
[monotone_constraints: ]
[monotone_constraints_method: basic]
[monotone_penalty: 0]
[feature_contri: ]
[forcedsplits_filename: ]
[refit_decay_rate: 0.9]
[cegb_tradeoff: 1]
[cegb_penalty_split: 0]
[cegb_penalty_feature_lazy: ]
[cegb_penalty_feature_coupled: ]
[path_smooth: 0]
[interaction_constraints: ]
[verbosity: 0]
[saved_feature_importance_type: 0]
[max_bin: 255]
[max_bin_by_feature: ]
[min_data_in_bin: 3]
[bin_construct_sample_cnt: 200000]
[data_random_seed: 1]
[is_enable_sparse: 1]
[enable_bundle: 1]
[use_missing: 1]
[zero_as_missing: 0]
[feature_pre_filter: 1]
[pre_partition: 0]
[two_round: 0]
[header: 0]
[label_column: ]
[weight_column: ]
[group_column: ]
[ignore_column: ]
[categorical_feature: ]
[forcedbins_filename: ]
[objective_seed: 5]
[num_class: 1]
[is_unbalance: 0]
[scale_pos_weight: 1]
[sigmoid: 1]
[boost_from_average: 1]
[reg_sqrt: 0]
[alpha: 0.9]
[fair_c: 1]
[poisson_max_delta_step: 0.7]
[tweedie_variance_power: 1.5]
[lambdarank_truncation_level: 30]
[lambdarank_norm: 1]
[label_gain: ]
[eval_at: ]
[multi_error_top_k: 1]
[auc_mu_weights: ]
[num_machines: 1]
[local_listen_port: 12400]
[time_out: 120]
[machine_list_filename: ]
[machines: ]
[gpu_platform_id: -1]
[gpu_device_id: -1]
[gpu_use_dp: 0]
[num_gpu: 1]

end of parameters

pandas_categorical:[]
